digraph Tree {
node [shape=box, style="filled, rounded", color="black", fontname=helvetica] ;
edge [fontname=helvetica] ;
0 [label=<FTI &le; 170.5<br/>entropy = 0.207<br/>samples = 2800<br/>value = [8, 7, 62, 2723]>, fillcolor="#d83fe6"] ;
1 [label=<T3 &le; 3.15<br/>entropy = 0.075<br/>samples = 2690<br/>value = [8, 7, 5, 2670]>, fillcolor="#d73ae5"] ;
0 -> 1 [labeldistance=2.5, labelangle=45, headlabel="True"] ;
2 [label=<FTI &le; 155.5<br/>entropy = 0.018<br/>samples = 2590<br/>value = [0, 1, 3, 2586]>, fillcolor="#d739e5"] ;
1 -> 2 ;
3 [label=<pregnant &le; 0.5<br/>entropy = 0.005<br/>samples = 2520<br/>value = [0, 1, 0, 2519]>, fillcolor="#d739e5"] ;
2 -> 3 ;
4 [label=<entropy = 0.0<br/>samples = 2499<br/>value = [0, 0, 0, 2499]>, fillcolor="#d739e5"] ;
3 -> 4 ;
5 [label=<FTI &le; 67.0<br/>entropy = 0.276<br/>samples = 21<br/>value = [0, 1, 0, 20]>, fillcolor="#d943e6"] ;
3 -> 5 ;
6 [label=<entropy = 0.0<br/>samples = 1<br/>value = [0, 1, 0, 0]>, fillcolor="#47e539"] ;
5 -> 6 ;
7 [label=<entropy = 0.0<br/>samples = 20<br/>value = [0, 0, 0, 20]>, fillcolor="#d739e5"] ;
5 -> 7 ;
8 [label=<T4U &le; 0.975<br/>entropy = 0.255<br/>samples = 70<br/>value = [0, 0, 3, 67]>, fillcolor="#d942e6"] ;
2 -> 8 ;
9 [label=<entropy = 0.0<br/>samples = 52<br/>value = [0, 0, 0, 52]>, fillcolor="#d739e5"] ;
8 -> 9 ;
10 [label=<T3 &le; 2.6<br/>entropy = 0.65<br/>samples = 18<br/>value = [0, 0, 3, 15]>, fillcolor="#df61ea"] ;
8 -> 10 ;
11 [label=<T4U &le; 1.0<br/>entropy = 0.337<br/>samples = 16<br/>value = [0, 0, 1, 15]>, fillcolor="#da46e7"] ;
10 -> 11 ;
12 [label=<FTI &le; 163.5<br/>entropy = 0.918<br/>samples = 3<br/>value = [0, 0, 1, 2]>, fillcolor="#eb9cf2"] ;
11 -> 12 ;
13 [label=<entropy = 0.0<br/>samples = 2<br/>value = [0, 0, 0, 2]>, fillcolor="#d739e5"] ;
12 -> 13 ;
14 [label=<entropy = 0.0<br/>samples = 1<br/>value = [0, 0, 1, 0]>, fillcolor="#399de5"] ;
12 -> 14 ;
15 [label=<entropy = 0.0<br/>samples = 13<br/>value = [0, 0, 0, 13]>, fillcolor="#d739e5"] ;
11 -> 15 ;
16 [label=<entropy = 0.0<br/>samples = 2<br/>value = [0, 0, 2, 0]>, fillcolor="#399de5"] ;
10 -> 16 ;
17 [label=<tumor &le; 0.5<br/>entropy = 0.859<br/>samples = 100<br/>value = [8, 6, 2, 84]>, fillcolor="#de5bea"] ;
1 -> 17 ;
18 [label=<age &le; 53.5<br/>entropy = 0.57<br/>samples = 93<br/>value = [8, 0, 2, 83]>, fillcolor="#dc50e8"] ;
17 -> 18 ;
19 [label=<T4U &le; 1.025<br/>entropy = 0.191<br/>samples = 68<br/>value = [0, 0, 2, 66]>, fillcolor="#d83fe6"] ;
18 -> 19 ;
20 [label=<T3 &le; 4.5<br/>entropy = 0.863<br/>samples = 7<br/>value = [0, 0, 2, 5]>, fillcolor="#e788ef"] ;
19 -> 20 ;
21 [label=<entropy = 0.0<br/>samples = 4<br/>value = [0, 0, 0, 4]>, fillcolor="#d739e5"] ;
20 -> 21 ;
22 [label=<age &le; 36.5<br/>entropy = 0.918<br/>samples = 3<br/>value = [0, 0, 2, 1]>, fillcolor="#9ccef2"] ;
20 -> 22 ;
23 [label=<entropy = 0.0<br/>samples = 2<br/>value = [0, 0, 2, 0]>, fillcolor="#399de5"] ;
22 -> 23 ;
24 [label=<entropy = 0.0<br/>samples = 1<br/>value = [0, 0, 0, 1]>, fillcolor="#d739e5"] ;
22 -> 24 ;
25 [label=<entropy = 0.0<br/>samples = 61<br/>value = [0, 0, 0, 61]>, fillcolor="#d739e5"] ;
19 -> 25 ;
26 [label=<age &le; 66.0<br/>entropy = 0.904<br/>samples = 25<br/>value = [8, 0, 0, 17]>, fillcolor="#ea96f1"] ;
18 -> 26 ;
27 [label=<TSH &le; 0.102<br/>entropy = 0.985<br/>samples = 14<br/>value = [8, 0, 0, 6]>, fillcolor="#f8e0ce"] ;
26 -> 27 ;
28 [label=<entropy = 0.0<br/>samples = 7<br/>value = [7, 0, 0, 0]>, fillcolor="#e58139"] ;
27 -> 28 ;
29 [label=<on_antithyroid_medication &le; 0.5<br/>entropy = 0.592<br/>samples = 7<br/>value = [1, 0, 0, 6]>, fillcolor="#de5ae9"] ;
27 -> 29 ;
30 [label=<entropy = 0.0<br/>samples = 6<br/>value = [0, 0, 0, 6]>, fillcolor="#d739e5"] ;
29 -> 30 ;
31 [label=<entropy = 0.0<br/>samples = 1<br/>value = [1, 0, 0, 0]>, fillcolor="#e58139"] ;
29 -> 31 ;
32 [label=<entropy = 0.0<br/>samples = 11<br/>value = [0, 0, 0, 11]>, fillcolor="#d739e5"] ;
26 -> 32 ;
33 [label=<TSH_measured &le; 0.5<br/>entropy = 0.592<br/>samples = 7<br/>value = [0, 6, 0, 1]>, fillcolor="#66e95a"] ;
17 -> 33 ;
34 [label=<entropy = 0.0<br/>samples = 1<br/>value = [0, 0, 0, 1]>, fillcolor="#d739e5"] ;
33 -> 34 ;
35 [label=<entropy = 0.0<br/>samples = 6<br/>value = [0, 6, 0, 0]>, fillcolor="#47e539"] ;
33 -> 35 ;
36 [label=<on_thyroxine &le; 0.5<br/>entropy = 0.999<br/>samples = 110<br/>value = [0, 0, 57, 53]>, fillcolor="#f1f8fd"] ;
0 -> 36 [labeldistance=2.5, labelangle=-45, headlabel="False"] ;
37 [label=<TSH &le; 0.31<br/>entropy = 0.906<br/>samples = 84<br/>value = [0, 0, 57, 27]>, fillcolor="#97cbf1"] ;
36 -> 37 ;
38 [label=<TT4 &le; 140.5<br/>entropy = 0.778<br/>samples = 74<br/>value = [0, 0, 57, 17]>, fillcolor="#74baed"] ;
37 -> 38 ;
39 [label=<entropy = 0.0<br/>samples = 6<br/>value = [0, 0, 0, 6]>, fillcolor="#d739e5"] ;
38 -> 39 ;
40 [label=<TSH &le; 0.067<br/>entropy = 0.639<br/>samples = 68<br/>value = [0, 0, 57, 11]>, fillcolor="#5fb0ea"] ;
38 -> 40 ;
41 [label=<T3 &le; 2.0<br/>entropy = 0.353<br/>samples = 45<br/>value = [0, 0, 42, 3]>, fillcolor="#47a4e7"] ;
40 -> 41 ;
42 [label=<age &le; 74.0<br/>entropy = 0.75<br/>samples = 14<br/>value = [0, 0, 11, 3]>, fillcolor="#6fb8ec"] ;
41 -> 42 ;
43 [label=<query_hypothyroid &le; 0.5<br/>entropy = 0.439<br/>samples = 11<br/>value = [0, 0, 10, 1]>, fillcolor="#4da7e8"] ;
42 -> 43 ;
44 [label=<entropy = 0.0<br/>samples = 10<br/>value = [0, 0, 10, 0]>, fillcolor="#399de5"] ;
43 -> 44 ;
45 [label=<entropy = 0.0<br/>samples = 1<br/>value = [0, 0, 0, 1]>, fillcolor="#d739e5"] ;
43 -> 45 ;
46 [label=<query_hypothyroid &le; 0.5<br/>entropy = 0.918<br/>samples = 3<br/>value = [0, 0, 1, 2]>, fillcolor="#eb9cf2"] ;
42 -> 46 ;
47 [label=<entropy = 0.0<br/>samples = 2<br/>value = [0, 0, 0, 2]>, fillcolor="#d739e5"] ;
46 -> 47 ;
48 [label=<entropy = 0.0<br/>samples = 1<br/>value = [0, 0, 1, 0]>, fillcolor="#399de5"] ;
46 -> 48 ;
49 [label=<entropy = 0.0<br/>samples = 31<br/>value = [0, 0, 31, 0]>, fillcolor="#399de5"] ;
41 -> 49 ;
50 [label=<TT4 &le; 168.5<br/>entropy = 0.932<br/>samples = 23<br/>value = [0, 0, 15, 8]>, fillcolor="#a3d1f3"] ;
40 -> 50 ;
51 [label=<entropy = 0.0<br/>samples = 6<br/>value = [0, 0, 6, 0]>, fillcolor="#399de5"] ;
50 -> 51 ;
52 [label=<age &le; 39.5<br/>entropy = 0.998<br/>samples = 17<br/>value = [0, 0, 9, 8]>, fillcolor="#e9f4fc"] ;
50 -> 52 ;
53 [label=<entropy = 0.0<br/>samples = 4<br/>value = [0, 0, 0, 4]>, fillcolor="#d739e5"] ;
52 -> 53 ;
54 [label=<psych &le; 0.5<br/>entropy = 0.89<br/>samples = 13<br/>value = [0, 0, 9, 4]>, fillcolor="#91c9f1"] ;
52 -> 54 ;
55 [label=<entropy = 0.684<br/>samples = 11<br/>value = [0, 0, 9, 2]>, fillcolor="#65b3eb"] ;
54 -> 55 ;
56 [label=<entropy = 0.0<br/>samples = 2<br/>value = [0, 0, 0, 2]>, fillcolor="#d739e5"] ;
54 -> 56 ;
57 [label=<entropy = 0.0<br/>samples = 10<br/>value = [0, 0, 0, 10]>, fillcolor="#d739e5"] ;
37 -> 57 ;
58 [label=<entropy = 0.0<br/>samples = 26<br/>value = [0, 0, 0, 26]>, fillcolor="#d739e5"] ;
36 -> 58 ;
}